{"layers": [{"weights": [[-1.203617811203003, 0.5413665771484375], [2.6338188648223877, 1.2192846536636353], [0.002544539049267769, -1.5020874738693237], [-0.20382747054100037, -0.051500074565410614], [2.396050453186035, -0.895567774772644], [-5.353429794311523, -1.0773141384124756], [-2.80427622795105, -1.1714763641357422], [-0.08878317475318909, -0.12942074239253998], [-0.9101020097732544, -1.598875641822815], [2.2802181243896484, 2.6004157066345215], [2.9911630153656006, -1.509879231452942], [-0.5191987752914429, 1.8141369819641113], [-3.1992783546447754, -2.2824599742889404], [1.0304609537124634, 1.8672882318496704], [-0.7052527070045471, -3.4674935340881348], [2.5371527671813965, 3.0272059440612793], [-2.575058698654175, 1.2017117738723755], [-2.1622984409332275, 0.4775982201099396], [-3.6285924911499023, -4.307651996612549], [0.024024546146392822, -0.024221625179052353], [1.85535728931427, 1.4637255668640137], [1.9877281188964844, 2.008512496948242], [-1.4694098234176636, -0.0617140494287014], [-1.682989239692688, -0.12287012487649918], [2.9276375770568848, 1.356382131576538], [-0.44190749526023865, 1.4689663648605347], [1.2246614694595337, -3.0415635108947754], [-3.9421377182006836, -1.0828979015350342], [-1.3155865669250488, 0.566044270992279], [-2.296189308166504, 1.2222187519073486], [-0.21289263665676117, 2.2677359580993652], [1.7719868421554565, -1.772294521331787]], "biases": [-1.2592546939849854, -1.3819670677185059, -1.2545522451400757, -0.6941933035850525, 0.8142713308334351, -1.1369575262069702, 0.7775008678436279, -0.4075912833213806, -1.1780236959457397, -0.6055244207382202, -1.6314938068389893, -1.533078908920288, -0.817947268486023, -1.038010597229004, 0.22419261932373047, 1.9582030773162842, -1.102461814880371, -0.7655999064445496, -0.08515837043523788, -0.26393771171569824, -1.2587528228759766, 2.411799430847168, -1.4096477031707764, -1.6454970836639404, 2.002108573913574, -1.2665941715240479, -1.5293272733688354, 0.27949556708335876, -1.4328426122665405, 0.9582832455635071, -0.5601512789726257, -1.8222488164901733], "activation": "relu"}, {"weights": [[-1.0127454996109009, 0.12031978368759155, 1.1324989795684814, 0.07625852525234222, 0.9560127854347229, -3.3945202827453613, 0.05692431703209877, -0.0019234768114984035, 1.5377509593963623, 1.0820955038070679, -0.2715596854686737, -0.060829415917396545, 4.530156135559082, -1.4622944593429565, -0.5658630132675171, -0.10755550861358643, 0.48669514060020447, 1.0687229633331299, -0.04916733503341675, -0.15711113810539246, -0.7453553080558777, 0.0008228010847233236, -1.1017435789108276, -1.061914324760437, 0.5962415337562561, -0.1549234688282013, -1.477366328239441, 1.0626150369644165, -1.1815857887268066, -0.9252632260322571, -2.848316192626953, 1.6282325983047485], [1.1615362167358398, 0.8526561856269836, -0.7979740500450134, -0.15221142768859863, 0.6576340198516846, 1.0488029718399048, -0.2726992964744568, -0.11586347222328186, 0.09736326336860657, -1.9525667428970337, 1.0395331382751465, 2.2909982204437256, -0.08370021730661392, 1.1518075466156006, -0.6157433986663818, 1.5785452127456665, -0.549770712852478, -0.6187482476234436, -2.352452516555786, 0.015680482611060143, 0.9283193349838257, 1.2147114276885986, 0.8183153867721558, 0.885795533657074, 1.0524592399597168, 2.588761568069458, 0.190481036901474, -4.220750331878662, 0.9874584674835205, 0.6480860114097595, -1.2855467796325684, -1.4743125438690186], [0.6751014590263367, 1.0950427055358887, -0.055461350828409195, 0.02312431111931801, -0.8756514191627502, 4.370584487915039, 1.5499913692474365, 0.0317053459584713, -0.28125497698783875, -1.5470097064971924, -0.21201305091381073, 2.3392937183380127, -8.161726951599121, 0.8352340459823608, 0.026796652004122734, -0.013933860696852207, -0.8121086359024048, -1.2337790727615356, 0.4739602208137512, -0.14869017899036407, 0.9967312812805176, 0.02745639905333519, 0.983322024345398, 1.0339070558547974, -0.13453224301338196, 2.7263007164001465, -0.8311282992362976, -1.0710746049880981, 0.792999267578125, 0.930767834186554, -1.6386606693267822, -1.3570685386657715], [-1.0980684757232666, -3.428180456161499, -0.062227651476860046, -0.09742598235607147, 0.6000347137451172, -3.137472629547119, -0.5176161527633667, 0.052604325115680695, 0.15494951605796814, 1.751641035079956, -3.2895548343658447, -2.617029905319214, 3.0449202060699463, -1.884289264678955, -1.051202416419983, 0.9260969758033752, 1.9088048934936523, 2.077329635620117, -0.4787798821926117, 0.08553797751665115, -2.237562894821167, 1.0672136545181274, -0.9648281931877136, -1.3296295404434204, 0.31974002718925476, -3.2206523418426514, -2.7950994968414307, 1.154403567314148, -0.8621682524681091, -0.43564921617507935, 1.8483730554580688, 0.03480391949415207], [-0.055609751492738724, -0.19243304431438446, 0.014473307877779007, 0.01274876855313778, 0.027318965643644333, 0.033069029450416565, -0.15363234281539917, 0.05572746694087982, -0.0032911936286836863, -0.038966041058301926, -0.0863824188709259, 0.022183697670698166, -0.06837568432092667, -0.044443871825933456, -0.022316740825772285, -0.06414244323968887, -0.025572871789336205, -0.17955781519412994, -0.18757101893424988, 0.0011946524027734995, 0.029864707961678505, -0.025751207023859024, 0.041670288890600204, 0.035530753433704376, -0.1824864149093628, -0.16439038515090942, -0.03641093522310257, -0.15296608209609985, 0.08504098653793335, -0.13921107351779938, -0.16311462223529816, 0.02628868818283081], [0.011759687215089798, 0.12008874118328094, 0.009813935495913029, 0.04244621843099594, -0.10353396087884903, 0.035196978598833084, -0.009737144224345684, 0.0030426441226154566, 0.04554114490747452, -0.06044888496398926, 0.018103819340467453, 0.0686718225479126, 0.014998292550444603, -0.15123817324638367, -0.1016138568520546, 0.0693168118596077, -0.08470916002988815, -0.07138711214065552, 0.12017855793237686, -0.11448615789413452, -0.0944209098815918, -0.10365664958953857, -0.0729510709643364, 0.12916196882724762, -0.03588580712676048, -0.16618292033672333, 0.0772157683968544, -0.1499137282371521, 0.0031706441659480333, 0.016580084338784218, -0.12996117770671844, -0.15634489059448242], [0.013530676253139973, -0.06934890896081924, -0.2560621500015259, 0.1426163613796234, 0.034741275012493134, -0.15321184694766998, -0.1325494945049286, -0.08110836148262024, -0.2375635951757431, -0.1735796183347702, -0.28176426887512207, 0.06856944411993027, -0.2097683846950531, 0.12498422712087631, -0.18661904335021973, 0.006610817275941372, -0.21025493741035461, 0.127545565366745, -0.12651954591274261, 0.1634526550769806, 0.058886583894491196, -0.19403673708438873, 0.017856376245617867, -0.007359851151704788, -0.1796838492155075, -0.0784597098827362, -0.006584014277905226, -0.0761834904551506, 0.04858753830194473, 0.11625837534666061, -0.05046031251549721, -0.008044447749853134], [0.02400309592485428, -0.07727094739675522, 0.07243940979242325, 0.08464621007442474, 0.08079942315816879, 2.8773081794497557e-05, -0.005728710908442736, 0.007897581905126572, -0.04682808741927147, -0.14863929152488708, -0.12996719777584076, 0.07100575417280197, -0.0029208986088633537, -0.1788269728422165, -0.11816056072711945, -0.001781240338459611, -0.24170029163360596, -0.13050319254398346, 0.026369608938694, -0.0583479069173336, -0.10031617432832718, -0.12142091989517212, -0.019957363605499268, 0.07573704421520233, -0.15470567345619202, 0.15244510769844055, 0.0037838597781956196, -0.11349683254957199, -0.012171890586614609, 0.015523774549365044, 0.10391682386398315, -0.1834632158279419], [2.1191725730895996, 5.1685357093811035, -3.0168731212615967, 0.004723397083580494, -0.317350298166275, 3.638599157333374, 0.6902419924736023, -0.10408300906419754, -3.2061150074005127, 4.946242332458496, -1.6415159702301025, 3.639512300491333, -9.866179466247559, 5.557300090789795, 1.8504767417907715, -2.7902581691741943, -1.8497499227523804, -1.334577202796936, 0.7862648963928223, 0.13390004634857178, 5.491979598999023, -1.5351320505142212, 3.5332491397857666, 3.4080095291137695, -1.28683340549469, 4.452253818511963, 2.798337936401367, 2.9248712062835693, 2.3245596885681152, 0.31751441955566406, 3.7635812759399414, -3.6439313888549805], [-0.6163585782051086, -1.0840656757354736, -2.8360679149627686, -0.05183318257331848, 1.2458542585372925, -4.112527847290039, -0.847091555595398, -0.03422802314162254, -2.1308915615081787, 2.9393389225006104, -2.286837100982666, -3.2663824558258057, 3.310271739959717, -2.1255338191986084, -1.3819602727890015, 1.222754955291748, 1.852926254272461, 2.2360613346099854, -0.6035311818122864, 0.0984562560915947, -1.5956426858901978, 1.152214765548706, -0.8139726519584656, -0.9966474771499634, 1.1620203256607056, -4.03131628036499, -2.5090932846069336, 1.0754730701446533, -0.6656357049942017, -0.5697420239448547, 2.043245315551758, 2.068760871887207], [-1.5113868713378906, 3.122622013092041, 2.015145778656006, 0.08197271078824997, -0.0784822627902031, 2.134838581085205, 0.09117026627063751, 0.09401889145374298, 1.9307810068130493, 0.5820016264915466, 2.1263020038604736, -5.929078578948975, -0.11026012152433395, -4.973647594451904, -0.11283084750175476, 0.3761681318283081, 1.0608384609222412, 1.3308255672454834, -0.9329180121421814, -0.016688549891114235, 4.605051517486572, -1.2004151344299316, -1.8881868124008179, -2.179643392562866, -1.1268705129623413, -3.6581461429595947, 2.2770273685455322, 0.6299160718917847, -1.4770559072494507, 1.057151198387146, -0.03476465865969658, 2.1572344303131104], [-1.2126954793930054, 2.091439962387085, 2.027472734451294, -0.08858087658882141, -0.14411689341068268, 1.284935474395752, 0.1417379081249237, -0.01734715700149536, 1.554279088973999, 0.256716787815094, 1.6550970077514648, -0.8526355028152466, -0.09498795121908188, -0.5581957697868347, -0.21193568408489227, 0.08301542699337006, 0.6288074254989624, 1.252117395401001, -0.5106591582298279, 0.07639695703983307, 2.585792064666748, -1.0303363800048828, -1.635201334953308, -1.5095425844192505, -0.7095717787742615, -1.0583802461624146, 1.7833755016326904, 0.3099217712879181, -1.51596999168396, 0.7475897669792175, -0.08453894406557083, 1.930549144744873], [-1.1299209594726562, 2.5324668884277344, 2.419708728790283, -0.12393057346343994, 0.0035607118625193834, 2.0198121070861816, 0.489904522895813, -0.008877516724169254, 2.4602560997009277, 0.9951390624046326, 2.3554840087890625, -1.129418969154358, -0.338639497756958, -0.3574557304382324, -0.09746991097927094, -0.08736869692802429, 0.5328753590583801, 1.0959465503692627, -0.9569368958473206, -0.11630496382713318, 2.8289525508880615, -1.3605942726135254, -1.9442353248596191, -1.7689142227172852, -0.8436335921287537, -1.1864780187606812, 2.486823797225952, 0.5278091430664062, -2.123356342315674, 1.096915602684021, 0.129799023270607, 2.179704189300537], [-0.13791468739509583, -0.3233945071697235, 0.10998515039682388, -0.12395995110273361, -0.2228614240884781, 0.06421590596437454, 0.07182250916957855, -0.07467270642518997, 0.11112472414970398, -0.16483302414417267, -0.04842642694711685, -0.03721494972705841, -0.16692078113555908, -0.33752837777137756, -0.0520937480032444, -0.2776942253112793, -0.13746455311775208, -0.1706475019454956, -0.06106314808130264, -0.014588731341063976, -0.47075268626213074, -0.3725394606590271, 0.045999471098184586, 0.09599045664072037, -0.29657986760139465, 0.06020352616906166, 0.05107579007744789, -0.14793343842029572, -0.029307927936315536, -0.22321854531764984, -0.20786577463150024, -0.07486608624458313], [-1.140657663345337, 0.045882027596235275, 2.6285481452941895, -0.14464439451694489, -0.38338759541511536, 1.5257400274276733, -1.2137601375579834, 0.15927374362945557, 2.0809760093688965, 1.861822485923767, 0.6694489121437073, -2.5228705406188965, 0.7753251791000366, -1.5238922834396362, -0.035615306347608566, 1.206712245941162, 1.2482504844665527, 1.5761315822601318, -0.03845004364848137, 0.016531258821487427, -1.5339158773422241, -0.16978295147418976, -1.054137110710144, -1.045278549194336, -0.5340720415115356, -3.0060791969299316, 1.6587942838668823, 0.04048559069633484, -1.4005770683288574, 0.5735813975334167, 1.6296005249023438, 2.2099905014038086], [-1.4665333032608032, -0.17577685415744781, 2.603142499923706, -0.021992962807416916, -0.6199420690536499, 1.7049673795700073, -0.8858097791671753, 0.14586254954338074, 2.4647812843322754, 1.4895272254943848, 1.406858205795288, -3.118058919906616, 0.6975446939468384, -1.9900978803634644, 0.6227019429206848, 1.1924971342086792, 1.4961777925491333, 1.7014236450195312, -0.41653406620025635, 0.13670767843723297, -1.1736727952957153, -0.39632999897003174, -1.4775562286376953, -1.8685098886489868, -1.1345090866088867, -3.822648525238037, 2.028620958328247, -0.773861825466156, -1.2595714330673218, 1.1790506839752197, 1.742403507232666, 2.4742915630340576], [-0.6283585429191589, -2.2211122512817383, 0.00938722025603056, 0.1305002123117447, 0.2237912267446518, -2.0586767196655273, -0.5130071640014648, -0.10109157115221024, 0.02663261443376541, 0.876197874546051, -2.1092171669006348, -2.146350860595703, 1.9809660911560059, -1.3242462873458862, -0.7968623638153076, 0.9037428498268127, 1.46819269657135, 1.4480738639831543, -0.2569262981414795, 0.03373867645859718, -1.6683672666549683, 0.8630445599555969, -0.7917311191558838, -0.8511040806770325, 0.3867536783218384, -2.2321689128875732, -1.8712471723556519, 0.7707945704460144, -0.9886444211006165, -0.3614688217639923, 1.4439771175384521, 0.4342227578163147], [-0.19206945598125458, -0.04075053706765175, -0.24855467677116394, -0.034567683935165405, 0.0539010725915432, -0.024235369637608528, -0.03351382538676262, -0.08413081616163254, -0.04210279509425163, -0.04061414301395416, -0.12153258919715881, -0.1153845563530922, -0.22003144025802612, -0.05279809981584549, -0.17887911200523376, 0.07179257273674011, -0.052882034331560135, 0.06761669367551804, -0.0112575339153409, 0.06679820269346237, 0.15431536734104156, 0.05971452593803406, -0.004003760404884815, -0.16431981325149536, -0.16203650832176208, -0.1411828249692917, -0.21757836639881134, 0.051614910364151, -0.07631692290306091, -0.19365841150283813, -0.10150040686130524, 0.06238279864192009], [-1.3831167221069336, 2.717898368835449, 1.9634219408035278, 0.16480156779289246, 0.11862850189208984, 2.058622360229492, 0.1337086260318756, 0.10533666610717773, 1.9996991157531738, 0.3944433927536011, 1.843284010887146, -5.441416263580322, -0.020579582080245018, -1.6610667705535889, -0.025086207315325737, 0.1496448814868927, 0.8984132409095764, 1.330246090888977, -0.9620931148529053, -0.11777114868164062, 4.152679920196533, -1.3515470027923584, -1.8454338312149048, -1.8064788579940796, -0.9711065888404846, -2.3213953971862793, 1.9023443460464478, 0.37260910868644714, -1.5812004804611206, 1.2583558559417725, -0.4170322120189667, 2.0236897468566895], [1.0613508224487305, -0.1384010910987854, -1.6279553174972534, 0.052682191133499146, -0.676572322845459, 3.4054677486419678, 1.077811360359192, 0.15841162204742432, -1.291810154914856, -2.132518768310547, 0.8399648666381836, 2.371415853500366, -3.4907920360565186, 1.101038932800293, 1.278472900390625, -0.2662915289402008, -1.1727203130722046, -1.5705642700195312, 0.6214065551757812, -0.0896991565823555, 0.5233042240142822, -0.1703951209783554, 1.1487442255020142, 1.1376057863235474, -0.22012726962566376, 3.0041348934173584, 1.670259714126587, -1.4025102853775024, 1.3079172372817993, 0.903317928314209, -1.2743295431137085, -2.287782669067383], [0.395449697971344, 1.1996322870254517, -0.06789565831422806, 0.03840833902359009, -0.8926265835762024, 1.9879472255706787, 1.1157219409942627, -0.07743625342845917, 0.054609306156635284, -1.2829793691635132, -0.37962231040000916, 1.880968689918518, -12.269631385803223, 1.0939428806304932, -0.05309427157044411, 0.010432137176394463, -1.6578139066696167, -2.48862886428833, 0.4749492406845093, 0.020517148077487946, 1.224873661994934, 0.43145620822906494, 0.7077171802520752, 0.7551385760307312, 0.10240105539560318, 2.4243533611297607, -1.3968346118927002, -1.2657560110092163, 0.37433096766471863, 0.7270234823226929, -1.4178755283355713, -1.2398616075515747], [-1.239604115486145, 0.5473842024803162, 1.679097294807434, -0.02488853596150875, -0.21415339410305023, 1.0562045574188232, -0.41547414660453796, -0.11374673247337341, 1.3865753412246704, 1.0700101852416992, 1.4521286487579346, -2.6541194915771484, 0.14473341405391693, -1.60214364528656, 0.7484694123268127, 0.7937809228897095, 1.1448718309402466, 1.1231346130371094, -0.5756825804710388, -0.10609450936317444, -0.6791895031929016, -0.28667810559272766, -1.4529895782470703, -1.616833209991455, -1.0565268993377686, -2.9101054668426514, 1.496411919593811, -0.4068523347377777, -1.2068501710891724, 1.0606690645217896, 1.3400700092315674, 1.700085997581482], [0.4188549816608429, -1.3803218603134155, -1.7804030179977417, -0.024825653061270714, -0.7002878785133362, 3.2947769165039062, 0.9888918399810791, -0.11864224076271057, -1.366436243057251, -3.4276766777038574, 2.15212345123291, -0.9867579936981201, -2.94295072555542, -0.6332336068153381, 1.2659019231796265, -0.41262370347976685, -1.3736662864685059, -1.3681368827819824, 0.7637224197387695, -0.07358432561159134, -1.489756464958191, -0.22683879733085632, 1.802036166191101, 3.769230604171753, -0.14502781629562378, -0.26762616634368896, 2.0138962268829346, -0.9145678877830505, 0.22431638836860657, 1.220096468925476, -2.0895824432373047, -1.2806591987609863], [1.2474188804626465, 0.9180042743682861, -1.2471569776535034, 0.08939607441425323, -1.2208285331726074, 1.276942253112793, -1.668009877204895, -0.06218086555600166, 0.8895339965820312, -2.9991226196289062, 2.1449403762817383, 3.927194356918335, -0.02525852620601654, 2.1453912258148193, -4.700575828552246, 1.5472263097763062, 0.59396892786026, 1.746806025505066, -4.577672481536865, -0.17322897911071777, 1.636558175086975, 0.2679482102394104, 0.8549017310142517, 1.0619583129882812, 0.7746972441673279, 5.104148864746094, 2.4446847438812256, -5.674140453338623, 1.482494592666626, 1.689742922782898, -1.4402118921279907, -2.6429996490478516], [-0.03334171697497368, 0.1446402668952942, 0.0353451669216156, -0.10606229305267334, 0.0012870804639533162, 0.028188949450850487, -0.019948124885559082, 0.10918602347373962, -0.0445556677877903, -0.08548147976398468, 0.12119842320680618, -0.023048214614391327, -0.14030200242996216, -0.001731561147607863, -0.02502850443124771, -0.0669856071472168, 0.05754414573311806, -0.1629522144794464, 0.0331670418381691, -0.1665818989276886, 0.08897705376148224, 0.04293844848871231, 0.01374627836048603, -0.010136337950825691, -0.16194507479667664, -0.059870947152376175, -0.020654084160923958, -0.08558216691017151, -0.0030309695284813643, 0.015500830486416817, 0.019322559237480164, -0.08115445077419281], [-1.4255846738815308, 1.6133196353912354, 1.7763773202896118, 0.06483399122953415, -0.12850014865398407, 0.9648765325546265, 0.06824309378862381, -0.07298653572797775, 1.5757393836975098, 0.4105025827884674, 1.6543515920639038, -3.6609480381011963, 0.05489816516637802, -0.31102532148361206, -0.28366515040397644, 0.054751522839069366, 0.5689179301261902, 1.1129695177078247, -0.3447662591934204, 0.1606817990541458, 1.8777130842208862, -0.9320840835571289, -1.6921086311340332, -1.7461320161819458, -0.5518443584442139, -1.553933024406433, 1.3635531663894653, -0.0026560768019407988, -1.4851540327072144, 0.9188081622123718, -0.5327763557434082, 1.6029304265975952], [-0.8552151322364807, -2.079714298248291, -0.1570412665605545, 0.006524879951030016, 0.3848637044429779, -2.204383373260498, -0.6292420029640198, -0.08795246481895447, 0.010709145106375217, 0.7720344662666321, -2.825242757797241, -2.0665314197540283, 1.706542730331421, -1.0213826894760132, -0.8748888969421387, 0.6329529285430908, 1.7236419916152954, 1.5466138124465942, -0.253323495388031, 0.09954307973384857, -1.8870431184768677, 0.798302173614502, -0.827629566192627, -0.9444426894187927, 0.5109604001045227, -2.0604093074798584, -1.9366321563720703, 0.8503658175468445, -0.9178068041801453, -0.24902214109897614, 1.0672978162765503, 0.3336384892463684], [-0.8205121159553528, -2.318941354751587, -0.2662496268749237, -0.061823081225156784, 0.6070476770401001, -2.2646031379699707, -0.5512644648551941, 0.006088491529226303, 0.010570745915174484, 1.2694517374038696, -3.159824848175049, -2.1207263469696045, 2.4725046157836914, -1.3514400720596313, -0.8822105526924133, 0.8213643431663513, 1.4463609457015991, 1.4948558807373047, -0.40910977125167847, 0.1650519222021103, -1.9939578771591187, 0.7343958616256714, -0.8964398503303528, -1.0235005617141724, 0.3695400357246399, -2.330331563949585, -2.259028434753418, 0.8918279409408569, -0.9185409545898438, -0.28420525789260864, 1.5549474954605103, 0.2560389041900635], [0.40544232726097107, 1.3789275884628296, -0.5659596920013428, 0.04953537881374359, -0.8528566956520081, 3.0147180557250977, 1.306388258934021, -0.021713949739933014, -0.29984399676322937, -1.5291074514389038, -0.15272822976112366, 2.278917074203491, -13.90029239654541, 1.2543237209320068, -0.031722988933324814, 0.17332834005355835, -1.6046913862228394, -2.1288862228393555, 0.48890045285224915, -0.15813158452510834, 1.4651087522506714, 0.43562519550323486, 0.7260924577713013, 0.9841445684432983, -0.06529218703508377, 2.826889991760254, -1.5468980073928833, -1.328099012374878, 0.5260244607925415, 0.7250451445579529, -1.5768686532974243, -1.5464756488800049], [0.010916813276708126, -0.10211656987667084, -0.05822421610355377, -0.11511998623609543, -0.12194696068763733, -0.14580023288726807, -0.1555985063314438, 0.0136839859187603, -0.20656223595142365, 0.07506106793880463, 0.07308011502027512, -0.010548260062932968, -0.15247462689876556, -0.028709406033158302, 0.08457262814044952, -0.09558115154504776, -0.01603936217725277, 0.15237678587436676, -0.07820231467485428, 0.13663995265960693, 0.11290647089481354, 0.14203618466854095, 0.11166229844093323, 0.0990169569849968, -0.1647200584411621, -0.08751710504293442, -0.14927098155021667, 0.06857886165380478, -0.08801667392253876, -0.14766894280910492, -0.030685454607009888, -0.07476149499416351], [0.3925360143184662, 1.218403935432434, -0.8832449913024902, -0.09142892807722092, -1.1622319221496582, 4.565688133239746, 1.5749448537826538, 0.030179565772414207, -0.2766689360141754, -1.8454569578170776, 0.2708287835121155, 2.5798492431640625, -10.137123107910156, 0.9742488861083984, -0.1175236776471138, 0.16720207035541534, -1.3765442371368408, -1.540441632270813, 0.5911778211593628, -0.04047555848956108, 1.2012733221054077, 0.27520355582237244, 0.53887540102005, 0.750350832939148, 0.17079734802246094, 2.89143705368042, -0.9506816864013672, -1.5491667985916138, 0.7672861218452454, 0.9807559251785278, -1.8556517362594604, -1.6782724857330322], [1.154861330986023, 1.783187985420227, -0.5943763852119446, -0.07533291727304459, -1.6413853168487549, 2.5864803791046143, -0.7947068810462952, 0.10546720027923584, -0.31656792759895325, -2.627758264541626, -1.6428043842315674, 3.619607925415039, 0.24764767289161682, 1.947555422782898, -4.869711875915527, 1.373276948928833, 0.20643813908100128, 0.5494175553321838, -3.450364589691162, -0.13171187043190002, 1.748279333114624, 0.6006020903587341, 0.8235611915588379, 1.029936671257019, 0.5976377725601196, 4.832756042480469, -0.9834842085838318, -6.040252208709717, 1.139502763748169, 1.1214971542358398, -1.5049502849578857, -3.418583631515503]], "biases": [0.437500536441803, 0.7693946957588196, -0.07632087171077728, 0.6097143292427063, -0.12583456933498383, -0.10526352375745773, 0.019215185195207596, -0.18286488950252533, -0.7903687357902527, 0.9041824340820312, -1.0301189422607422, -0.8013779520988464, -1.1076314449310303, -0.4042404294013977, -0.892060399055481, -0.8034090995788574, 0.4864497780799866, -0.152678444981575, -0.9160574078559875, 0.14273308217525482, 0.028073759749531746, -0.7106730937957764, 0.7180606126785278, -0.20875990390777588, -0.17588688433170319, -0.7318048477172852, 0.4993974268436432, 0.45870745182037354, 0.021655021235346794, -0.16054080426692963, 0.2544088065624237, -0.0057815201580524445], "activation": "relu"}, {"weights": [[2.3740780353546143, -4.731796741485596, -2.776660203933716, 2.1011855602264404, 0.06203152611851692, -0.17529845237731934, 0.013815032318234444, 0.028581220656633377, -12.896225929260254, 2.344780445098877, 2.337388753890991, 1.9028213024139404, 2.1189866065979004, -0.025886455550789833, 2.1563000679016113, 2.4147698879241943, 2.0518484115600586, -0.07288132607936859, 2.087721824645996, -2.201313018798828, -2.729600191116333, 2.0755763053894043, -1.9851737022399902, -4.729185104370117, -0.06593777239322662, 1.808963418006897, 1.9983376264572144, 2.1261699199676514, -2.936459541320801, -0.042899515479803085, -2.6315295696258545, -4.690532207489014]], "biases": [0.0037350310012698174], "activation": "linear"}]}